<?xml version="1.0" encoding="UTF-8"?>
<!-- This network was created in GeNIe Academic, which can be used for academic teaching and research purposes only -->
<smile version="1.0" id="Network3" numsamples="10000" discsamples="10000">
	<nodes>
		<cpt id="age">
			<state id="AgeOld" />
			<state id="AgeYoung" />
			<probabilities>0.57217985020095 0.42782014979905</probabilities>
		</cpt>
		<cpt id="height">
			<state id="High_Height" />
			<state id="Low_Height" />
			<probabilities>0.4617030507855316 0.5382969492144684</probabilities>
		</cpt>
		<cpt id="weight">
			<state id="High_weight" />
			<state id="Low_Weight" />
			<probabilities>0.4972300876872488 0.5027699123127511</probabilities>
		</cpt>
		<cpt id="bmi">
			<state id="BMIobese" />
			<state id="BMIslim" />
			<parents>height weight</parents>
			<probabilities>0.9024963206158721 0.0975036793841277 0.04408572978838849 0.9559142702116115 0.9999333688699359 6.663113006396588e-05 0.3926282051282051 0.6073717948717948</probabilities>
		</cpt>
		<cpt id="cholesterol">
			<state id="High_Cholesterol" />
			<state id="Low_Cholesterol" />
			<parents>age bmi</parents>
			<probabilities>0.8222979552093478 0.1777020447906524 0.639524297257312 0.3604757027426881 0.5997050816696914 0.4002949183303085 0.4434736842105263 0.5565263157894736</probabilities>
		</cpt>
		<cpt id="glucose">
			<state id="High_Glucose" />
			<state id="Low_Glucose" />
			<parents>age bmi cholesterol</parents>
			<probabilities>0.8713054187192119 0.1286945812807882 0.8164772727272727 0.1835227272727273 0.5924556213017752 0.4075443786982249 0.3607357357357358 0.6392642642642643 0.5497802197802198 0.4502197802197802 0.3904255319148937 0.6095744680851063 0.4358928571428571 0.5641071428571428 0.1594505494505494 0.8405494505494505</probabilities>
		</cpt>
		<cpt id="systolic_bp">
			<state id="High_systolic_bp" />
			<state id="Low_systolic_bp" />
			<parents>age bmi glucose</parents>
			<probabilities>0.6528686736474695 0.3471313263525305 0.7323588709677419 0.2676411290322581 0.7058678500986194 0.2941321499013807 0.4491836734693878 0.5508163265306123 0.6611170784103114 0.3388829215896885 0.3054292929292929 0.694570707070707 0.6285842293906809 0.371415770609319 0.1683201058201058 0.8316798941798943</probabilities>
		</cpt>
		<cpt id="diastolic_bp">
			<state id="High_diastolic_bp" />
			<state id="Low_diastolic_bp" />
			<parents>age bmi glucose</parents>
			<probabilities>0.2483093368237348 0.7516906631762653 0.5660282258064516 0.4339717741935484 0.2758875739644971 0.724112426035503 0.2451020408163266 0.7548979591836735 0.6074113856068744 0.3925886143931256 0.4407828282828283 0.5592171717171718 0.5730286738351255 0.4269713261648745 0.2132936507936508 0.7867063492063493</probabilities>
		</cpt>
		<cpt id="gender">
			<state id="female" />
			<state id="male" />
			<probabilities>0.4991893496529047 0.5008106503470953</probabilities>
		</cpt>
		<cpt id="waist">
			<state id="Large_Waist" />
			<state id="Thin_Waist" />
			<parents>weight</parents>
			<probabilities>0.9674670087976539 0.03253299120234604 0.4586534672970843 0.5413465327029157</probabilities>
		</cpt>
		<cpt id="hip">
			<state id="Large_Hip" />
			<state id="Thin_Hip" />
			<parents>weight</parents>
			<probabilities>0.9276128217660475 0.07238717823395242 0.3519913974257946 0.6480086025742053</probabilities>
		</cpt>
		<cpt id="diabetes">
			<state id="Yes" />
			<state id="No" />
			<parents>gender waist hip systolic_bp diastolic_bp age weight glucose cholesterol height</parents>
			<probabilities>0.9900000000000001 0.01 0.7053571428571428 0.2946428571428572 0.75 0.25 0.9166666666666666 0.08333333333333333 0.25 0.75 0.01388888888888889 0.9861111111111112 0.5 0.5 0.5 0.5 0.75 0.25 0.8333333333333333 0.1666666666666667 0.875 0.125 0.5 0.5 0.5 0.5 0.01666666666666667 0.9833333333333334 0.5 0.5 0.5 0.5 0.875 0.125 0.9583333333333335 0.04166666666666669 0.5 0.5 0.5 0.5 0.5 0.5 0.25 0.75 0.02777777777777778 0.9722222222222221 0.1666666666666667 0.8333333333333333 0.75 0.25 0.25 0.75 0.5 0.5 0.125 0.875 0.5 0.5 0.25 0.75 0.5 0.5 0.08333333333333333 0.9166666666666666 0.9791666666666666 0.02083333333333333 0.9930555555555555 0.006944444444444444 0.75 0.25 0.75 0.25 0.5 0.5 0.5 0.5 0.25 0.75 0.08333333333333333 0.9166666666666666 0.5 0.5 0.9583333333333333 0.04166666666666666 0.5 0.5 0.5 0.5 0.5 0.5 0.03125 0.96875 0.5 0.5 0.5 0.5 0.875 0.125 0.5 0.5 0.5 0.5 0.34375 0.65625 0.25 0.75 0.08333333333333333 0.9166666666666666 0.5 0.5 0.5 0.5 0.5 0.5 0.5 0.5 0.5 0.5 0.5 0.5 0.5 0.5 0.5 0.5 0.125 0.875 0.5 0.5 0.8333333333333333 0.1666666666666667 0.8333333333333333 0.1666666666666667 0.5 0.5 0.5 0.5 0.5 0.5 0.08333333333333336 0.9166666666666666 0.5 0.5 0.5 0.5 0.5 0.5 0.5 0.5 0.5 0.5 0.5 0.5 0.5 0.5 0.04166666666666669 0.9583333333333335 0.5 0.5 0.5 0.5 0.5 0.5 0.9166666666666666 0.08333333333333333 0.5 0.5 0.5 0.5 0.5 0.5 0.125 0.875 0.1666666666666667 0.8333333333333333 0.5 0.5 0.5 0.5 0.5 0.5 0.5 0.5 0.5 0.5 0.5 0.5 0.5 0.5 0.1666666666666667 0.8333333333333333 0.5 0.5 0.96875 0.03125 0.9833333333333334 0.01666666666666667 0.4166666666666666 0.5833333333333333 0.9166666666666666 0.08333333333333333 0.5 0.5 0.08333333333333336 0.9166666666666666 0.5 0.5 0.5 0.5 0.125 0.875 0.05555555555555558 0.9444444444444444 0.5 0.5 0.5 0.5 0.5 0.5 0.25 0.75 0.5 0.5 0.5 0.5 0.9166666666666666 0.08333333333333333 0.3125 0.6875 0.75 0.25 0.9583333333333335 0.04166666666666669 0.05555555555555558 0.9444444444444444 0.125 0.875 0.02083333333333333 0.9791666666666666 0.007936507936507936 0.9920634920634921 0.75 0.25 0.1666666666666667 0.8333333333333333 0.5 0.5 0.125 0.875 0.125 0.875 0.05555555555555558 0.9444444444444444 0.25 0.75 0.0125 0.9875 0.5 0.5 0.5 0.5 0.5 0.5 0.5 0.5 0.5 0.5 0.5 0.5 0.5 0.5 0.5 0.5 0.5 0.5 0.9444444444444444 0.05555555555555558 0.5 0.5 0.5 0.5 0.5 0.5 0.125 0.875 0.5 0.5 0.5 0.5 0.5 0.5 0.5 0.5 0.5 0.5 0.5 0.5 0.5 0.5 0.5 0.5 0.5 0.5 0.5 0.5 0.5 0.5 0.5 0.5 0.5 0.5 0.03125 0.96875 0.5 0.5 0.5 0.5 0.5 0.5 0.5 0.5 0.5 0.5 0.5 0.5 0.5 0.5 0.5 0.5 0.5 0.5 0.5 0.5 0.5 0.5 0.5 0.5 0.5 0.5 0.5 0.5 0.125 0.875 0.5 0.5 0.5 0.5 0.125 0.875 0.5 0.5 0.125 0.875 0.5 0.5 0.5 0.5 0.5 0.5 0.5 0.5 0.5 0.5 0.5 0.5 0.5 0.5 0.5 0.5 0.5 0.5 0.5 0.5 0.5 0.5 0.5 0.5 0.5 0.5 0.5 0.5 0.5 0.5 0.5 0.5 0.75 0.25 0.5 0.5 0.5 0.5 0.5 0.5 0.5 0.5 0.5 0.5 0.5 0.5 0.5 0.5 0.5 0.5 0.5 0.5 0.5 0.5 0.5 0.5 0.5 0.5 0.5 0.5 0.5 0.5 0.5 0.5 0.5 0.5 0.5 0.5 0.5 0.5 0.5 0.5 0.125 0.875 0.5 0.5 0.5 0.5 0.5 0.5 0.5 0.5 0.5 0.5 0.5 0.5 0.5 0.5 0.5 0.5 0.05555555555555558 0.9444444444444444 0.5 0.5 0.5 0.5 0.5 0.5 0.5 0.5 0.5 0.5 0.5 0.5 0.5 0.5 0.5 0.5 0.5 0.5 0.5 0.5 0.5 0.5 0.5 0.5 0.5 0.5 0.5 0.5 0.5 0.5 0.05555555555555558 0.9444444444444444 0.5 0.5 0.5 0.5 0.5 0.5 0.5 0.5 0.5 0.5 0.5 0.5 0.5 0.5 0.5 0.5 0.5 0.5 0.5 0.5 0.5 0.5 0.5 0.5 0.5 0.5 0.5 0.5 0.5 0.5 0.125 0.875 0.25 0.75 0.08333333333333333 0.9166666666666666 0.5 0.5 0.5 0.5 0.5 0.5 0.5 0.5 0.5 0.5 0.5 0.5 0.5 0.5 0.5 0.5 0.5 0.5 0.5 0.5 0.5 0.5 0.5 0.5 0.5 0.5 0.125 0.875 0.5 0.5 0.5 0.5 0.5 0.5 0.5 0.5 0.5 0.5 0.5 0.5 0.5 0.5 0.5 0.5 0.5 0.5 0.5 0.5 0.5 0.5 0.5 0.5 0.5 0.5 0.125 0.875 0.5 0.5 0.05555555555555558 0.9444444444444444 0.5 0.5 0.5 0.5 0.5 0.5 0.5 0.5 0.5 0.5 0.5 0.5 0.5 0.5 0.5 0.5 0.5 0.5 0.5 0.5 0.5 0.5 0.125 0.875 0.5 0.5 0.5 0.5 0.5 0.5 0.05555555555555558 0.9444444444444444 0.5 0.5 0.5 0.5 0.5 0.5 0.5 0.5 0.5 0.5 0.5 0.5 0.125 0.875 0.5 0.5 0.5 0.5 0.5 0.5 0.5 0.5 0.5 0.5 0.5 0.5 0.5 0.5 0.5 0.5 0.5 0.5 0.5 0.5 0.5 0.5 0.5 0.5 0.5 0.5 0.5 0.5 0.5 0.5 0.5 0.5 0.5 0.5 0.5 0.5 0.5 0.5 0.5 0.5 0.5 0.5 0.5 0.5 0.5 0.5 0.5 0.5 0.5 0.5 0.5 0.5 0.5 0.5 0.5 0.5 0.5 0.5 0.5 0.5 0.5 0.5 0.25 0.75 0.25 0.75 0.5 0.5 0.5 0.5 0.5 0.5 0.5 0.5 0.5 0.5 0.5 0.5 0.08333333333333333 0.9166666666666666 0.25 0.75 0.5 0.5 0.5 0.5 0.5 0.5 0.5 0.5 0.5 0.5 0.5 0.5 0.5 0.5 0.5 0.5 0.5 0.5 0.5 0.5 0.5 0.5 0.5 0.5 0.5 0.5 0.5 0.5 0.5 0.5 0.5 0.5 0.5 0.5 0.5 0.5 0.5 0.5 0.5 0.5 0.5 0.5 0.5 0.5 0.5 0.5 0.5 0.5 0.5 0.5 0.125 0.875 0.5 0.5 0.125 0.875 0.5 0.5 0.125 0.875 0.5 0.5 0.05555555555555558 0.9444444444444444 0.5 0.5 0.125 0.875 0.5 0.5 0.5 0.5 0.5 0.5 0.5 0.5 0.5 0.5 0.5 0.5 0.5 0.5 0.5 0.5 0.5 0.5 0.03125 0.96875 0.5 0.5 0.875 0.125 0.25 0.75 0.08333333333333333 0.9166666666666666 0.5 0.5 0.5 0.5 0.5 0.5 0.5 0.5 0.5 0.5 0.5 0.5 0.5 0.5 0.5 0.5 0.5 0.5 0.5 0.5 0.125 0.875 0.875 0.125 0.5 0.5 0.5 0.5 0.125 0.875 0.5 0.5 0.125 0.875 0.05555555555555558 0.9444444444444444 0.5 0.5 0.5 0.5 0.5 0.5 0.5 0.5 0.5 0.5 0.5 0.5 0.5 0.5 0.5 0.5 0.75 0.25 0.8265306122448979 0.173469387755102 0.5 0.5 0.125 0.875 0.5 0.5 0.05555555555555558 0.9444444444444444 0.5 0.5 0.125 0.875 0.75 0.25 0.5 0.5 0.5 0.5 0.5 0.5 0.5 0.5 0.5 0.5 0.5 0.5 0.5 0.5 0.5 0.5 0.5 0.5 0.5 0.5 0.5 0.5 0.5 0.5 0.5 0.5 0.5 0.5 0.125 0.875 0.75 0.25 0.5 0.5 0.5 0.5 0.5 0.5 0.5 0.5 0.5 0.5 0.5 0.5 0.5 0.5 0.5 0.5 0.5 0.5 0.5 0.5 0.5 0.5 0.5 0.5 0.5 0.5 0.5 0.5 0.5 0.5 0.5 0.5 0.5 0.5 0.5 0.5 0.5 0.5 0.5 0.5 0.5 0.5 0.5 0.5 0.5 0.5 0.5 0.5 0.5 0.5 0.5 0.5 0.5 0.5 0.5 0.5 0.125 0.875 0.125 0.875 0.125 0.875 0.5 0.5 0.5 0.5 0.5 0.5 0.5 0.5 0.5 0.5 0.5 0.5 0.5 0.5 0.5 0.5 0.5 0.5 0.5 0.5 0.5 0.5 0.125 0.875 0.1666666666666667 0.8333333333333333 0.3 0.7000000000000001 0.5 0.5 0.125 0.875 0.5 0.5 0.5 0.5 0.5 0.5 0.5 0.5 0.5 0.5 0.5 0.5 0.5 0.5 0.5 0.5 0.5 0.5 0.05555555555555558 0.9444444444444444 0.875 0.125 0.05555555555555558 0.9444444444444444 0.5 0.5 0.005000000000000001 0.995 0.0625 0.9375 0.0010351966873706 0.9989648033126293 0.9857142857142858 0.01428571428571429 0.9 0.1 0.5416666666666666 0.4583333333333333 0.75 0.25 0.5 0.5 0.5 0.5 0.5 0.5 0.5 0.5 0.5 0.5 0.5 0.5 0.5 0.5 0.5 0.5 0.5 0.5 0.5 0.5 0.5 0.5 0.5 0.5 0.9895104895104896 0.01048951048951049 0.6875 0.3125 0.7250000000000001 0.275 0.5 0.5 0.05555555555555558 0.9444444444444444 0.5 0.5 0.05555555555555558 0.9444444444444444 0.5 0.5 0.9944444444444445 0.005555555555555556 0.9583333333333335 0.04166666666666669 0.125 0.875 0.5 0.5 0.5 0.5 0.5 0.5 0.5 0.5 0.5 0.5 0.9880952380952381 0.01190476190476191 0.9891304347826086 0.0108695652173913 0.8035714285714285 0.1964285714285714 0.875 0.125 0.125 0.875 0.5 0.5 0.125 0.875 0.5 0.5 0.75 0.25 0.7250000000000001 0.275 0.75 0.25 0.75 0.25 0.125 0.875 0.5 0.5 0.5 0.5 0.5 0.5 0.9166666666666666 0.08333333333333336 0.8333333333333333 0.1666666666666667 0.2916666666666667 0.7083333333333333 0.5 0.5 0.5 0.5 0.5 0.5 0.125 0.875 0.5 0.5 0.5 0.5 0.5 0.5 0.5 0.5 0.5 0.5 0.5 0.5 0.5 0.5 0.5 0.5 0.5 0.5 0.75 0.25 0.875 0.125 0.5 0.5 0.75 0.25 0.5 0.5 0.5 0.5 0.5 0.5 0.5 0.5 0.5 0.5 0.8333333333333333 0.1666666666666667 0.5 0.5 0.5 0.5 0.5 0.5 0.5 0.5 0.5 0.5 0.5 0.5 0.9444444444444444 0.05555555555555558 0.5 0.5 0.5 0.5 0.5 0.5 0.05555555555555558 0.9444444444444444 0.5 0.5 0.125 0.875 0.5 0.5 0.5 0.5 0.5 0.5 0.5 0.5 0.5 0.5 0.5 0.5 0.5 0.5 0.5 0.5 0.5 0.5 0.8409090909090909 0.1590909090909091 0.9375 0.0625 0.9583333333333335 0.04166666666666669 0.875 0.125 0.5 0.5 0.5 0.5 0.08333333333333336 0.9166666666666666 0.25 0.75 0.75 0.25 0.5 0.5 0.4166666666666666 0.5833333333333333 0.5 0.5 0.5 0.5 0.5 0.5 0.5 0.5 0.5 0.5 0.875 0.125 0.5 0.5 0.5 0.5 0.5 0.5 0.05555555555555558 0.9444444444444444 0.5 0.5 0.125 0.875 0.5 0.5 0.5 0.5 0.5 0.5 0.5 0.5 0.5 0.5 0.5 0.5 0.5 0.5 0.5 0.5 0.5 0.5 0.25 0.75 0.5 0.5 0.5 0.5 0.5 0.5 0.5 0.5 0.5 0.5 0.5 0.5 0.5 0.5 0.611111111111111 0.3888888888888889 0.75 0.25 0.5 0.5 0.5 0.5 0.5 0.5 0.5 0.5 0.5 0.5 0.5 0.5 0.5 0.5 0.5 0.5 0.5 0.5 0.5 0.5 0.025 0.975 0.5 0.5 0.5 0.5 0.5 0.5 0.75 0.25 0.75 0.25 0.5 0.5 0.5 0.5 0.125 0.875 0.25 0.75 0.5 0.5 0.5 0.5 0.4583333333333333 0.5416666666666666 0.5 0.5 0.5 0.5 0.5 0.5 0.25 0.75 0.5 0.5 0.1666666666666667 0.8333333333333333 0.5 0.5 0.6875 0.3125 0.5 0.5 0.5 0.5 0.75 0.25 0.25 0.75 0.5 0.5 0.0625 0.9375 0.125 0.875 0.5 0.5 0.5 0.5 0.5 0.5 0.5 0.5 0.5 0.5 0.5 0.5 0.5 0.5 0.5 0.5 0.5 0.5 0.5 0.5 0.5 0.5 0.5 0.5 0.5 0.5 0.5 0.5 0.5 0.5 0.5 0.5 0.5 0.5 0.5 0.5 0.5 0.5 0.5 0.5 0.125 0.875 0.5 0.5 0.5 0.5 0.5 0.5 0.5 0.5 0.5 0.5 0.5 0.5 0.5 0.5 0.5 0.5 0.5 0.5 0.5 0.5 0.5 0.5 0.125 0.875 0.5 0.5 0.5 0.5 0.5 0.5 0.25 0.75 0.5 0.5 0.05555555555555558 0.9444444444444444 0.5 0.5 0.125 0.875 0.5 0.5 0.5 0.5 0.5 0.5 0.25 0.75 0.5 0.5 0.5 0.5 0.5 0.5 0.5 0.5 0.5 0.5 0.5 0.5 0.25 0.75 0.8333333333333333 0.1666666666666667 0.5 0.5 0.25 0.75 0.5 0.5 0.5 0.5 0.75 0.25 0.8333333333333333 0.1666666666666667 0.25 0.75 0.5416666666666666 0.4583333333333333 0.25 0.75 0.04166666666666669 0.9583333333333335 0.5 0.5 0.5 0.5 0.5 0.5 0.08333333333333336 0.9166666666666666 0.5 0.5 0.04166666666666666 0.9583333333333333 0.5 0.5 0.5 0.5 0.5 0.5 0.5 0.5 0.5 0.5 0.25 0.75 0.5 0.5 0.25 0.75 0.5 0.5 0.125 0.875 0.5 0.5 0.5 0.5 0.5 0.5 0.5 0.5 0.5 0.5 0.5 0.5 0.5 0.5 0.5 0.5 0.5 0.5 0.5 0.5 0.5 0.5 0.5 0.5 0.5 0.5 0.5 0.5 0.5 0.5 0.5 0.5 0.5 0.5 0.5 0.5 0.5 0.5 0.5 0.5 0.5 0.5 0.5 0.5 0.5 0.5 0.5 0.5 0.5 0.5 0.5 0.5 0.5 0.5 0.5 0.5 0.5 0.5 0.5 0.5 0.5 0.5 0.5 0.5 0.5 0.5 0.5 0.5 0.5 0.5 0.5 0.5 0.5 0.5 0.5 0.5 0.5 0.5 0.5 0.5 0.5 0.5 0.75 0.25 0.5 0.5 0.5 0.5 0.5 0.5 0.5 0.5 0.5 0.5 0.5 0.5 0.5 0.5 0.5 0.5 0.5 0.5 0.5 0.5 0.5 0.5 0.5 0.5 0.5 0.5 0.5 0.5 0.5 0.5 0.5 0.5 0.5 0.5 0.5 0.5 0.5 0.5 0.5 0.5 0.5 0.5 0.5 0.5 0.5 0.5 0.5 0.5 0.5 0.5 0.5 0.5 0.5 0.5 0.5 0.5 0.5 0.5 0.5 0.5 0.5 0.5 0.5 0.5 0.5 0.5 0.5 0.5 0.5 0.5 0.5 0.5 0.5 0.5 0.5 0.5 0.5 0.5 0.5 0.5 0.5 0.5 0.5 0.5 0.5 0.5 0.5 0.5 0.5 0.5 0.5 0.5 0.5 0.5 0.5 0.5 0.5 0.5 0.5 0.5 0.5 0.5 0.5 0.5 0.5 0.5 0.5 0.5 0.5 0.5 0.5 0.5 0.5 0.5 0.125 0.875 0.5 0.5 0.5 0.5 0.5 0.5 0.5 0.5 0.5 0.5 0.875 0.125 0.5 0.5 0.5 0.5 0.5 0.5 0.5 0.5 0.5 0.5 0.5 0.5 0.5 0.5 0.5 0.5 0.5 0.5 0.5 0.5 0.5 0.5 0.125 0.875 0.5 0.5 0.5 0.5 0.5 0.5 0.5 0.5 0.5 0.5 0.5 0.5 0.5 0.5 0.5 0.5 0.5 0.5 0.5 0.5 0.5 0.5 0.875 0.125 0.5 0.5 0.5 0.5 0.5 0.5 0.5 0.5 0.5 0.5 0.5 0.5 0.5 0.5 0.875 0.125 0.5 0.5 0.125 0.875 0.5 0.5 0.03125 0.96875 0.125 0.875 0.125 0.875 0.5 0.5 0.5 0.5 0.5 0.5 0.5 0.5 0.5 0.5 0.5 0.5 0.5 0.5 0.5 0.5 0.5 0.5 0.5 0.5 0.5 0.5 0.125 0.875 0.5 0.5 0.125 0.875 0.125 0.875 0.5 0.5 0.5 0.5 0.75 0.25 0.5 0.5 0.5 0.5 0.5 0.5 0.5 0.5 0.5 0.5 0.5 0.5 0.5 0.5 0.125 0.875 0.75 0.25 0.125 0.875 0.5 0.5 0.5 0.5 0.125 0.875 0.05555555555555558 0.9444444444444444 0.5 0.5 0.5 0.5 0.5 0.5 0.5 0.5 0.5 0.5 0.5 0.5 0.5 0.5 0.5 0.5 0.5 0.5 0.125 0.875 0.5 0.5 0.5 0.5 0.5 0.5 0.05555555555555558 0.9444444444444444 0.5 0.5 0.125 0.875 0.5 0.5 0.5 0.5 0.5 0.5 0.5 0.5 0.5 0.5 0.5 0.5 0.5 0.5 0.25 0.75 0.5 0.5 0.875 0.125 0.5 0.5 0.5 0.5 0.5 0.5 0.5 0.5 0.5 0.5 0.08333333333333333 0.9166666666666666 0.125 0.875 0.5 0.5 0.5 0.5 0.5 0.5 0.5 0.5 0.5 0.5 0.5 0.5 0.5 0.5 0.5 0.5 0.125 0.875 0.5 0.5 0.5 0.5 0.5 0.5 0.5 0.5 0.5 0.5 0.03125 0.96875 0.5 0.5 0.5 0.5 0.5 0.5 0.875 0.125 0.5 0.5 0.25 0.75 0.5 0.5 0.5 0.5 0.5 0.5 0.5 0.5 0.125 0.875 0.5 0.5 0.5 0.5 0.125 0.875 0.25 0.75 0.0078125 0.9921875 0.5 0.5 0.5 0.5 0.5 0.5 0.5 0.5 0.5 0.5 0.1666666666666667 0.8333333333333333 0.5 0.5 0.25 0.75 0.5 0.5 0.125 0.875 0.5 0.5 0.5 0.5 0.5 0.5 0.1319444444444444 0.8680555555555555 0.25 0.75 0.002976190476190476 0.9970238095238094 0.05 0.9500000000000001</probabilities>
		</cpt>
	</nodes>
	<extensions>
		<genie version="1.0" app="GeNIe 3.0.6518.0 ACADEMIC" name="Network3">
			<node id="age">
				<name>age</name>
				<interior color="e5f6f7" />
				<outline color="000080" />
				<font color="000000" name="Arial" size="8" />
				<position>937 41 985 71</position>
				<barchart active="true" />
			</node>
			<node id="height">
				<name>height</name>
				<interior color="e5f6f7" />
				<outline color="000080" />
				<font color="000000" name="Arial" size="8" />
				<position>391 61 439 91</position>
				<barchart active="true" />
			</node>
			<node id="cholesterol">
				<name>cholesterol</name>
				<interior color="e5f6f7" />
				<outline color="000080" />
				<font color="000000" name="Arial" size="8" />
				<position>1289 198 1337 228</position>
				<barchart active="true" />
			</node>
			<node id="glucose">
				<name>glucose</name>
				<interior color="e5f6f7" />
				<outline color="000080" />
				<font color="000000" name="Arial" size="8" />
				<position>1535 363 1583 393</position>
				<barchart active="true" />
			</node>
			<node id="systolic_bp">
				<name>systolic_bp</name>
				<interior color="e5f6f7" />
				<outline color="000080" />
				<font color="000000" name="Arial" size="8" />
				<position>1128 558 1176 588</position>
				<barchart active="true" />
			</node>
			<node id="diastolic_bp">
				<name>diastolic_bp</name>
				<interior color="e5f6f7" />
				<outline color="000080" />
				<font color="000000" name="Arial" size="8" />
				<position>1426 603 1474 633</position>
				<barchart active="true" />
			</node>
			<node id="bmi">
				<name>bmi</name>
				<interior color="e5f6f7" />
				<outline color="000080" />
				<font color="000000" name="Arial" size="8" />
				<position>543 263 591 293</position>
				<barchart active="true" />
			</node>
			<node id="weight">
				<name>weight</name>
				<interior color="e5f6f7" />
				<outline color="000080" />
				<font color="000000" name="Arial" size="8" />
				<position>150 277 198 307</position>
				<barchart active="true" />
			</node>
			<node id="gender">
				<name>gender</name>
				<interior color="e5f6f7" />
				<outline color="000080" />
				<font color="000000" name="Arial" size="8" />
				<position>185 580 233 610</position>
				<barchart active="true" />
			</node>
			<node id="waist">
				<name>waist</name>
				<interior color="e5f6f7" />
				<outline color="000080" />
				<font color="000000" name="Arial" size="8" />
				<position>499 552 551 584</position>
				<barchart active="true" />
			</node>
			<node id="hip">
				<name>hip</name>
				<interior color="e5f6f7" />
				<outline color="000080" />
				<font color="000000" name="Arial" size="8" />
				<position>804 543 856 575</position>
				<barchart active="true" />
			</node>
			<node id="diabetes">
				<name>diabetes</name>
				<interior color="e5f6f7" />
				<outline color="000080" />
				<font color="000000" name="Arial" size="8" />
				<position>828 765 880 797</position>
				<barchart active="true" />
			</node>
		</genie>
	</extensions>
</smile>
