<?xml version="1.0" encoding="UTF-8"?>
<!-- This network was created in GeNIe Academic, which can be used for academic teaching and research purposes only -->
<smile version="1.0" id="Network1" numsamples="10000" discsamples="10000">
	<nodes>
		<cpt id="Weight">
			<state id="High_Weight" />
			<state id="Low_Weight" />
			<probabilities>0.4488491048593351 0.551150895140665</probabilities>
		</cpt>
		<cpt id="Height">
			<state id="High_Height" />
			<state id="Low_Height" />
			<probabilities>0.5537084398976982 0.4462915601023018</probabilities>
		</cpt>
		<cpt id="BMI">
			<state id="BMIobese" />
			<state id="BMIslim" />
			<parents>Height Weight</parents>
			<probabilities>0.7644628099173554 0.2355371900826446 0.02577319587628866 0.9742268041237113 0.9910714285714285 0.008928571428571428 0.3541666666666667 0.6458333333333334</probabilities>
		</cpt>
		<cpt id="Age">
			<state id="AgeOld" />
			<state id="AgeYoung" />
			<probabilities>0.4207161125319693 0.5792838874680307</probabilities>
		</cpt>
		<cpt id="Cholesterol">
			<state id="High_Cholesterol" />
			<state id="Low_Cholesterol" />
			<parents>BMI Age</parents>
			<probabilities>0.7278481012658228 0.2721518987341772 0.5657894736842105 0.4342105263157894 0.5919540229885057 0.4080459770114943 0.4342105263157894 0.5657894736842105</probabilities>
		</cpt>
		<cpt id="Glucose">
			<state id="High_Glucose" />
			<state id="Low_Glucose" />
			<parents>BMI Cholesterol Age</parents>
			<probabilities>0.5775862068965517 0.4224137931034483 0.4846153846153847 0.5153846153846154 0.6590909090909091 0.3409090909090909 0.35 0.65 0.5096153846153847 0.4903846153846154 0.41 0.59 0.3472222222222222 0.6527777777777778 0.1615384615384615 0.8384615384615385</probabilities>
		</cpt>
		<cpt id="Hip">
			<state id="Large_Hip" />
			<state id="Thin_Hip" />
			<parents>Weight</parents>
			<probabilities>0.8039772727272727 0.1960227272727273 0.2615740740740741 0.7384259259259259</probabilities>
		</cpt>
		<cpt id="Waist">
			<state id="Large_Waist" />
			<state id="Thin_Waist" />
			<parents>Weight</parents>
			<probabilities>0.9232954545454546 0.07670454545454546 0.3402777777777777 0.6597222222222222</probabilities>
		</cpt>
		<cpt id="Systolic_bp">
			<state id="High_systolic_bp" />
			<state id="Low_systolic_bp" />
			<parents>BMI Glucose Age</parents>
			<probabilities>0.6979166666666666 0.3020833333333333 0.6836734693877551 0.3163265306122449 0.703125 0.296875 0.3257575757575757 0.6742424242424243 0.7051282051282051 0.2948717948717949 0.6290322580645161 0.3709677419354839 0.4591836734693877 0.5408163265306122 0.1488095238095238 0.8511904761904762</probabilities>
		</cpt>
		<cpt id="Diastolic_bp">
			<state id="High_diastolic_bp" />
			<state id="Low_diastolic_bp" />
			<parents>BMI Glucose Age</parents>
			<probabilities>0.4270833333333333 0.5729166666666666 0.6224489795918366 0.3775510204081632 0.546875 0.453125 0.446969696969697 0.5530303030303031 0.3461538461538461 0.6538461538461539 0.6290322580645161 0.3709677419354839 0.2551020408163265 0.7448979591836734 0.1964285714285714 0.8035714285714285</probabilities>
		</cpt>
		<cpt id="Gender">
			<state id="female" />
			<state id="male" />
			<probabilities>0.5460358056265985 0.4539641943734016</probabilities>
		</cpt>
		<cpt id="Diabete_diagnosis">
			<state id="Yes" />
			<state id="No" />
			<parents>Gender Systolic_bp Diastolic_bp Hip Waist Weight Height Age Cholesterol Glucose</parents>
			<probabilities>0.9 0.1 0.25 0.75 0.75 0.25 0.5 0.5 0.75 0.25 0.5 0.5 0.5 0.5 0.08333333333333333 0.9166666666666666 0.6428571428571428 0.3571428571428571 0.08333333333333333 0.9166666666666666 0.75 0.25 0.5 0.5 0.8333333333333333 0.1666666666666667 0.25 0.75 0.5 0.5 0.5 0.5 0.5 0.5 0.5 0.5 0.75 0.25 0.5 0.5 0.5 0.5 0.5 0.5 0.5 0.5 0.5 0.5 0.5 0.5 0.1 0.9 0.5 0.5 0.5 0.5 0.5 0.5 0.5 0.5 0.25 0.75 0.25 0.75 0.5 0.5 0.5 0.5 0.5 0.5 0.5 0.5 0.5 0.5 0.5 0.5 0.5 0.5 0.5 0.5 0.5 0.5 0.5 0.5 0.5 0.5 0.5 0.5 0.5 0.5 0.5 0.5 0.5 0.5 0.5 0.5 0.5 0.5 0.5 0.5 0.5 0.5 0.5 0.5 0.5 0.5 0.5 0.5 0.5 0.5 0.5 0.5 0.5 0.5 0.25 0.75 0.5 0.5 0.5 0.5 0.5 0.5 0.1666666666666667 0.8333333333333333 0.25 0.75 0.5 0.5 0.5 0.5 0.5 0.5 0.5 0.5 0.5 0.5 0.5 0.5 0.5 0.5 0.5 0.5 0.5 0.5 0.5 0.5 0.5 0.5 0.5 0.5 0.5 0.5 0.5 0.5 0.5 0.5 0.5 0.5 0.5 0.5 0.5 0.5 0.5 0.5 0.5 0.5 0.5 0.5 0.5 0.5 0.5 0.5 0.5 0.5 0.5 0.5 0.8333333333333333 0.1666666666666667 0.25 0.75 0.5 0.5 0.5 0.5 0.5 0.5 0.5 0.5 0.125 0.875 0.5 0.5 0.5 0.5 0.5 0.5 0.5 0.5 0.5 0.5 0.5 0.5 0.5 0.5 0.5 0.5 0.5 0.5 0.5 0.5 0.5 0.5 0.5 0.5 0.5 0.5 0.5 0.5 0.5 0.5 0.5 0.5 0.5 0.5 0.5 0.5 0.25 0.75 0.5 0.5 0.5 0.5 0.25 0.75 0.25 0.75 0.5 0.5 0.25 0.75 0.125 0.875 0.25 0.75 0.75 0.25 0.5 0.5 0.75 0.25 0.5 0.5 0.5 0.5 0.1666666666666667 0.8333333333333333 0.75 0.25 0.5 0.5 0.5 0.5 0.25 0.75 0.75 0.25 0.25 0.75 0.5 0.5 0.5 0.5 0.875 0.125 0.5 0.5 0.5 0.5 0.25 0.75 0.5 0.5 0.25 0.75 0.375 0.625 0.5 0.5 0.5 0.5 0.5 0.5 0.5 0.5 0.5 0.5 0.5 0.5 0.5 0.5 0.5 0.5 0.25 0.75 0.75 0.25 0.125 0.875 0.5 0.5 0.5 0.5 0.5 0.5 0.5 0.5 0.5 0.5 0.5 0.5 0.5 0.5 0.5 0.5 0.5 0.5 0.5 0.5 0.5 0.5 0.25 0.75 0.5 0.5 0.5 0.5 0.5 0.5 0.5 0.5 0.5 0.5 0.5 0.5 0.5 0.5 0.5 0.5 0.5 0.5 0.5 0.5 0.5 0.5 0.5 0.5 0.5 0.5 0.5 0.5 0.5 0.5 0.5 0.5 0.5 0.5 0.5 0.5 0.25 0.75 0.1666666666666667 0.8333333333333333 0.5 0.5 0.5 0.5 0.5 0.5 0.5 0.5 0.5 0.5 0.5 0.5 0.5 0.5 0.5 0.5 0.5 0.5 0.5 0.5 0.5 0.5 0.5 0.5 0.5 0.5 0.5 0.5 0.5 0.5 0.5 0.5 0.5 0.5 0.5 0.5 0.5 0.5 0.5 0.5 0.5 0.5 0.5 0.5 0.5 0.5 0.5 0.5 0.25 0.75 0.5 0.5 0.5 0.5 0.5 0.5 0.5 0.5 0.5 0.5 0.5 0.5 0.25 0.75 0.5 0.5 0.25 0.75 0.5 0.5 0.5 0.5 0.5 0.5 0.5 0.5 0.5 0.5 0.5 0.5 0.5 0.5 0.5 0.5 0.5 0.5 0.5 0.5 0.5 0.5 0.5 0.5 0.5 0.5 0.5 0.5 0.5 0.5 0.5 0.5 0.5 0.5 0.5 0.5 0.5 0.5 0.5 0.5 0.5 0.5 0.5 0.5 0.5 0.5 0.5 0.5 0.5 0.5 0.5 0.5 0.5 0.5 0.5 0.5 0.7857142857142857 0.2142857142857143 0.1666666666666667 0.8333333333333333 0.25 0.75 0.25 0.75 0.5 0.5 0.5 0.5 0.5 0.5 0.25 0.75 0.5 0.5 0.5 0.5 0.5 0.5 0.5 0.5 0.5 0.5 0.5 0.5 0.5 0.5 0.1666666666666667 0.8333333333333333 0.5 0.5 0.1666666666666667 0.8333333333333333 0.5 0.5 0.5 0.5 0.75 0.25 0.25 0.75 0.5 0.5 0.5 0.5 0.5 0.5 0.5 0.5 0.5 0.5 0.5 0.5 0.5 0.5 0.5 0.5 0.5 0.5 0.5 0.5 0.5 0.5 0.1666666666666667 0.8333333333333333 0.5 0.5 0.5 0.5 0.5 0.5 0.5 0.5 0.5 0.5 0.5 0.5 0.5 0.5 0.5 0.5 0.5 0.5 0.5 0.5 0.5 0.5 0.25 0.75 0.5 0.5 0.5 0.5 0.5 0.5 0.5 0.5 0.5 0.5 0.5 0.5 0.5 0.5 0.25 0.75 0.5 0.5 0.5 0.5 0.5 0.5 0.5 0.5 0.5 0.5 0.5 0.5 0.5 0.5 0.25 0.75 0.5 0.5 0.5 0.5 0.5 0.5 0.5 0.5 0.5 0.5 0.5 0.5 0.5 0.5 0.5 0.5 0.5 0.5 0.5 0.5 0.5 0.5 0.5 0.5 0.5 0.5 0.5 0.5 0.5 0.5 0.25 0.75 0.5 0.5 0.5 0.5 0.5 0.5 0.5 0.5 0.5 0.5 0.5 0.5 0.5 0.5 0.5 0.5 0.5 0.5 0.5 0.5 0.5 0.5 0.5 0.5 0.5 0.5 0.5 0.5 0.5 0.5 0.5 0.5 0.5 0.5 0.5 0.5 0.5 0.5 0.5 0.5 0.5 0.5 0.5 0.5 0.5 0.5 0.1666666666666667 0.8333333333333333 0.5 0.5 0.5 0.5 0.5 0.5 0.5 0.5 0.5 0.5 0.5 0.5 0.5 0.5 0.5 0.5 0.5 0.5 0.5 0.5 0.5 0.5 0.5 0.5 0.5 0.5 0.5 0.5 0.5 0.5 0.5 0.5 0.5 0.5 0.5 0.5 0.5 0.5 0.5 0.5 0.5 0.5 0.5 0.5 0.5 0.5 0.5 0.5 0.5 0.5 0.25 0.75 0.5 0.5 0.5 0.5 0.5 0.5 0.5 0.5 0.5 0.5 0.25 0.75 0.5 0.5 0.25 0.75 0.75 0.25 0.5 0.5 0.25 0.75 0.5 0.5 0.75 0.25 0.1666666666666667 0.8333333333333333 0.75 0.25 0.08333333333333333 0.9166666666666666 0.8333333333333333 0.1666666666666667 0.1666666666666667 0.8333333333333333 0.75 0.25 0.5 0.5 0.25 0.75 0.25 0.75 0.8333333333333333 0.1666666666666667 0.05555555555555555 0.9444444444444444 0.25 0.75 0.5 0.5 0.5 0.5 0.5 0.5 0.5 0.5 0.25 0.75 0.5 0.5 0.5 0.5 0.1666666666666667 0.8333333333333333 0.5 0.5 0.5 0.5 0.5 0.5 0.5 0.5 0.1666666666666667 0.8333333333333333 0.25 0.75 0.1 0.9 0.5 0.5 0.5 0.5 0.5 0.5 0.5 0.5 0.5 0.5 0.5 0.5 0.5 0.5 0.5 0.5 0.5 0.5 0.5 0.5 0.5 0.5 0.5 0.5 0.5 0.5 0.5 0.5 0.5 0.5 0.25 0.75 0.5 0.5 0.5 0.5 0.5 0.5 0.5 0.5 0.5 0.5 0.5 0.5 0.5 0.5 0.5 0.5 0.5 0.5 0.5 0.5 0.5 0.5 0.5 0.5 0.25 0.75 0.1666666666666667 0.8333333333333333 0.25 0.75 0.25 0.75 0.5 0.5 0.5 0.5 0.5 0.5 0.5 0.5 0.5 0.5 0.5 0.5 0.5 0.5 0.5 0.5 0.5 0.5 0.5 0.5 0.5 0.5 0.5 0.5 0.5 0.5 0.5 0.5 0.5 0.5 0.5 0.5 0.5 0.5 0.5 0.5 0.5 0.5 0.5 0.5 0.5 0.5 0.5 0.5 0.5 0.5 0.25 0.75 0.5 0.5 0.1666666666666667 0.8333333333333333 0.5 0.5 0.5 0.5 0.5 0.5 0.25 0.75 0.5 0.5 0.25 0.75 0.5 0.5 0.5 0.5 0.5 0.5 0.5 0.5 0.5 0.5 0.5 0.5 0.5 0.5 0.5 0.5 0.5 0.5 0.5 0.5 0.5 0.5 0.5 0.5 0.5 0.5 0.5 0.5 0.5 0.5 0.5 0.5 0.5 0.5 0.1666666666666667 0.8333333333333333 0.5 0.5 0.5 0.5 0.5 0.5 0.5 0.5 0.75 0.25 0.125 0.875 0.5 0.5 0.5 0.5 0.25 0.75 0.25 0.75 0.1666666666666667 0.8333333333333333 0.05 0.9500000000000001 0.1666666666666667 0.8333333333333333 0.02380952380952381 0.9761904761904762 0.9 0.1 0.5 0.5 0.625 0.375 0.5 0.5 0.8846153846153847 0.1153846153846154 0.1666666666666667 0.8333333333333333 0.625 0.375 0.1666666666666667 0.8333333333333333 0.5 0.5 0.5 0.5 0.5 0.5 0.5 0.5 0.75 0.25 0.5 0.5 0.5 0.5 0.5 0.5 0.5 0.5 0.5 0.5 0.5 0.5 0.5 0.5 0.9444444444444444 0.05555555555555555 0.5 0.5 0.25 0.75 0.5 0.5 0.5 0.5 0.5 0.5 0.5 0.5 0.5 0.5 0.8333333333333333 0.1666666666666667 0.5 0.5 0.5 0.5 0.5 0.5 0.5 0.5 0.5 0.5 0.5 0.5 0.5 0.5 0.5 0.5 0.5 0.5 0.5 0.5 0.5 0.5 0.5 0.5 0.5 0.5 0.5 0.5 0.5 0.5 0.5 0.5 0.5 0.5 0.5 0.5 0.5 0.5 0.5 0.5 0.5 0.5 0.5 0.5 0.5 0.5 0.5 0.5 0.5 0.5 0.5 0.5 0.5 0.5 0.5 0.5 0.5 0.5 0.5 0.5 0.5 0.5 0.5 0.5 0.5 0.5 0.5 0.5 0.5 0.5 0.25 0.75 0.5 0.5 0.5 0.5 0.5 0.5 0.5 0.5 0.1 0.9 0.5 0.5 0.5 0.5 0.5 0.5 0.5 0.5 0.5 0.5 0.5 0.5 0.5 0.5 0.5 0.5 0.5 0.5 0.5 0.5 0.8333333333333333 0.1666666666666667 0.5 0.5 0.5 0.5 0.5 0.5 0.75 0.25 0.25 0.75 0.5 0.5 0.5 0.5 0.5 0.5 0.5 0.5 0.5 0.5 0.5 0.5 0.5 0.5 0.5 0.5 0.5 0.5 0.5 0.5 0.75 0.25 0.5 0.5 0.5 0.5 0.5 0.5 0.5 0.5 0.5 0.5 0.5 0.5 0.5 0.5 0.5 0.5 0.5 0.5 0.5 0.5 0.5 0.5 0.5 0.5 0.5 0.5 0.5 0.5 0.5 0.5 0.75 0.25 0.125 0.875 0.25 0.75 0.25 0.75 0.5 0.5 0.25 0.75 0.25 0.75 0.5 0.5 0.5 0.5 0.25 0.75 0.5 0.5 0.5 0.5 0.5 0.5 0.25 0.75 0.5 0.5 0.5 0.5 0.8333333333333333 0.1666666666666667 0.25 0.75 0.625 0.375 0.25 0.75 0.8333333333333333 0.1666666666666667 0.5 0.5 0.1666666666666667 0.8333333333333333 0.25 0.75 0.75 0.25 0.5 0.5 0.5 0.5 0.5 0.5 0.5 0.5 0.5 0.5 0.5 0.5 0.5 0.5 0.25 0.75 0.25 0.75 0.5 0.5 0.5 0.5 0.5 0.5 0.5 0.5 0.5 0.5 0.5 0.5 0.25 0.75 0.5 0.5 0.5 0.5 0.5 0.5 0.5 0.5 0.5 0.5 0.5 0.5 0.5 0.5 0.5 0.5 0.5 0.5 0.5 0.5 0.5 0.5 0.5 0.5 0.5 0.5 0.5 0.5 0.5 0.5 0.5 0.5 0.5 0.5 0.5 0.5 0.5 0.5 0.5 0.5 0.5 0.5 0.5 0.5 0.5 0.5 0.5 0.5 0.5 0.5 0.5 0.5 0.5 0.5 0.5 0.5 0.5 0.5 0.5 0.5 0.5 0.5 0.5 0.5 0.5 0.5 0.5 0.5 0.5 0.5 0.5 0.5 0.5 0.5 0.5 0.5 0.5 0.5 0.375 0.625 0.25 0.75 0.5 0.5 0.1666666666666667 0.8333333333333333 0.5 0.5 0.5 0.5 0.5 0.5 0.5 0.5 0.5 0.5 0.5 0.5 0.5 0.5 0.5 0.5 0.5 0.5 0.5 0.5 0.5 0.5 0.5 0.5 0.75 0.25 0.5 0.5 0.5 0.5 0.25 0.75 0.5 0.5 0.5 0.5 0.5 0.5 0.5 0.5 0.5 0.5 0.5 0.5 0.5 0.5 0.25 0.75 0.5 0.5 0.5 0.5 0.5 0.5 0.5 0.5 0.5 0.5 0.5 0.5 0.5 0.5 0.5 0.5 0.5 0.5 0.5 0.5 0.5 0.5 0.5 0.5 0.5 0.5 0.5 0.5 0.5 0.5 0.5 0.5 0.5 0.5 0.5 0.5 0.5 0.5 0.5 0.5 0.25 0.75 0.5 0.5 0.25 0.75 0.1666666666666667 0.8333333333333333 0.25 0.75 0.1666666666666667 0.8333333333333333 0.5 0.5 0.25 0.75 0.5 0.5 0.25 0.75 0.5 0.5 0.5 0.5 0.5 0.5 0.5 0.5 0.5 0.5 0.5 0.5 0.5 0.5 0.5 0.5 0.5 0.5 0.5 0.5 0.8333333333333333 0.1666666666666667 0.1666666666666667 0.8333333333333333 0.5 0.5 0.25 0.75 0.5 0.5 0.5 0.5 0.5 0.5 0.5 0.5 0.5 0.5 0.5 0.5 0.5 0.5 0.5 0.5 0.5 0.5 0.5 0.5 0.5 0.5 0.5 0.5 0.5 0.5 0.5 0.5 0.5 0.5 0.5 0.5 0.5 0.5 0.5 0.5 0.5 0.5 0.5 0.5 0.5 0.5 0.5 0.5 0.5 0.5 0.5 0.5 0.5 0.5 0.5 0.5 0.5 0.5 0.5 0.5 0.5 0.5 0.5 0.5 0.5 0.5 0.5 0.5 0.5 0.5 0.5 0.5 0.5 0.5 0.5 0.5 0.5 0.5 0.5 0.5 0.5 0.5 0.5 0.5 0.5 0.5 0.5 0.5 0.5 0.5 0.5 0.5 0.5 0.5 0.5 0.5 0.5 0.5 0.5 0.5 0.5 0.5 0.5 0.5 0.5 0.5 0.5 0.5 0.5 0.5 0.5 0.5 0.5 0.5 0.5 0.5 0.5 0.5 0.25 0.75 0.5 0.5 0.5 0.5 0.25 0.75 0.25 0.75 0.5 0.5 0.1666666666666667 0.8333333333333333 0.5 0.5 0.5 0.5 0.5 0.5 0.5 0.5 0.5 0.5 0.5 0.5 0.5 0.5 0.5 0.5 0.5 0.5 0.5 0.5 0.5 0.5 0.5 0.5 0.25 0.75 0.5 0.5 0.5 0.5 0.5 0.5 0.5 0.5 0.5 0.5 0.5 0.5 0.5 0.5 0.5 0.5 0.5 0.5 0.5 0.5 0.5 0.5 0.5 0.5 0.5 0.5 0.5 0.5 0.25 0.75 0.5 0.5 0.5 0.5 0.5 0.5 0.5 0.5 0.5 0.5 0.5 0.5 0.5 0.5 0.5 0.5 0.5 0.5 0.5 0.5 0.5 0.5 0.5 0.5 0.75 0.25 0.5 0.5 0.5 0.5 0.25 0.75 0.25 0.75 0.5 0.5 0.5 0.5 0.125 0.875 0.5 0.5 0.5 0.5 0.5 0.5 0.25 0.75 0.5 0.5 0.5 0.5 0.5 0.5 0.5 0.5 0.25 0.75 0.5 0.5 0.8333333333333333 0.1666666666666667 0.1666666666666667 0.8333333333333333 0.5 0.5 0.1666666666666667 0.8333333333333333 0.5 0.5 0.25 0.75 0.25 0.75 0.5 0.5 0.5 0.5 0.5 0.5 0.5 0.5 0.5 0.5 0.5 0.5 0.5 0.5 0.5 0.5 0.5 0.5 0.25 0.75 0.5 0.5 0.5 0.5 0.5 0.5 0.5 0.5 0.5 0.5 0.5 0.5 0.5 0.5 0.5 0.5 0.5 0.5 0.5 0.5 0.5 0.5 0.5 0.5 0.5 0.5 0.5 0.5 0.5 0.5 0.25 0.75 0.5 0.5 0.5 0.5 0.25 0.75 0.5 0.5 0.5 0.5 0.5 0.5 0.5 0.5 0.5 0.5 0.5 0.5 0.5 0.5 0.5 0.5 0.5 0.5 0.5 0.5 0.75 0.25 0.5 0.5 0.5 0.5 0.5 0.5 0.5 0.5 0.5 0.5 0.5 0.5 0.5 0.5 0.5 0.5 0.5 0.5 0.5 0.5 0.5 0.5 0.5 0.5 0.5 0.5 0.5 0.5 0.5 0.5 0.5 0.5 0.8333333333333333 0.1666666666666667 0.5 0.5 0.25 0.75 0.5 0.5 0.125 0.875 0.1666666666666667 0.8333333333333333 0.5 0.5 0.5 0.5 0.5 0.5 0.5 0.5 0.5 0.5 0.5 0.5 0.5 0.5 0.5 0.5 0.5 0.5 0.5 0.5 0.1666666666666667 0.8333333333333333 0.5 0.5 0.1666666666666667 0.8333333333333333 0.5 0.5 0.5 0.5 0.5 0.5 0.25 0.75 0.5 0.5 0.5 0.5 0.5 0.5 0.5 0.5 0.5 0.5 0.5 0.5 0.5 0.5 0.5 0.5 0.5 0.5 0.25 0.75 0.75 0.25 0.5 0.5 0.5 0.5 0.1666666666666667 0.8333333333333333 0.5 0.5 0.25 0.75 0.5 0.5 0.5 0.5 0.5 0.5 0.5 0.5 0.5 0.5 0.5 0.5 0.5 0.5 0.5 0.5 0.5 0.5 0.25 0.75 0.5 0.5 0.0625 0.9375 0.25 0.75 0.1875 0.8125 0.5 0.5 0.03571428571428571 0.9642857142857142 0.25 0.75 0.5 0.5 0.5 0.5 0.5 0.5 0.5 0.5 0.5 0.5 0.5 0.5 0.25 0.75</probabilities>
		</cpt>
	</nodes>
	<extensions>
		<genie version="1.0" app="GeNIe 3.0.6518.0 ACADEMIC" name="Network1">
			<node id="Weight">
				<name>Weight</name>
				<interior color="e5f6f7" />
				<outline color="000080" />
				<font color="000000" name="Arial" size="8" />
				<position>95 212 205 269</position>
				<barchart active="true" width="128" height="64" />
			</node>
			<node id="Height">
				<name>Height</name>
				<interior color="e5f6f7" />
				<outline color="000080" />
				<font color="000000" name="Arial" size="8" />
				<position>447 40 563 97</position>
				<barchart active="true" width="128" height="64" />
			</node>
			<node id="BMI">
				<name>BMI</name>
				<interior color="e5f6f7" />
				<outline color="000080" />
				<font color="000000" name="Arial" size="8" />
				<position>534 177 651 238</position>
				<barchart active="true" width="128" height="64" />
			</node>
			<node id="Glucose">
				<name>Glucose</name>
				<interior color="e5f6f7" />
				<outline color="000080" />
				<font color="000000" name="Arial" size="8" />
				<position>1508 428 1622 480</position>
				<barchart active="true" width="128" height="64" />
			</node>
			<node id="Cholesterol">
				<name>Cholesterol</name>
				<interior color="e5f6f7" />
				<outline color="000080" />
				<font color="000000" name="Arial" size="8" />
				<position>1399 180 1508 240</position>
				<barchart active="true" width="192" height="64" />
			</node>
			<node id="Hip">
				<name>Hip</name>
				<interior color="e5f6f7" />
				<outline color="000080" />
				<font color="000000" name="Arial" size="8" />
				<position>653 488 763 548</position>
				<barchart active="true" width="128" height="64" />
			</node>
			<node id="Waist">
				<name>Waist</name>
				<interior color="e5f6f7" />
				<outline color="000080" />
				<font color="000000" name="Arial" size="8" />
				<position>425 487 534 551</position>
				<barchart active="true" width="128" height="64" />
			</node>
			<node id="Systolic_bp">
				<name>Systolic_bp</name>
				<interior color="e5f6f7" />
				<outline color="000080" />
				<font color="000000" name="Arial" size="8" />
				<position>909 487 1017 547</position>
				<barchart active="true" width="183" height="64" />
			</node>
			<node id="Diastolic_bp">
				<name>Diastolic_bp</name>
				<interior color="e5f6f7" />
				<outline color="000080" />
				<font color="000000" name="Arial" size="8" />
				<position>1145 491 1240 547</position>
				<barchart active="true" width="179" height="64" />
			</node>
			<node id="Age">
				<name>Age</name>
				<interior color="e5f6f7" />
				<outline color="000080" />
				<font color="000000" name="Arial" size="8" />
				<position>815 45 923 91</position>
				<barchart active="true" width="128" height="64" />
			</node>
			<node id="Diabete_diagnosis">
				<name>Diabete_diagnosis</name>
				<interior color="e5f6f7" />
				<outline color="000080" />
				<font color="000000" name="Arial" size="8" />
				<position>686 705 808 753</position>
				<barchart active="true" />
			</node>
			<node id="Gender">
				<name>Gender</name>
				<interior color="e5f6f7" />
				<outline color="000080" />
				<font color="000000" name="Arial" size="8" />
				<position>224 491 329 549</position>
				<barchart active="true" width="128" height="64" />
			</node>
		</genie>
	</extensions>
</smile>
